{"learner":{"attributes":{"best_iteration":"32","best_score":"0.11502149080645227"},"feature_names":["mean radius","mean texture","mean perimeter","mean area","mean smoothness","mean compactness","mean concavity","mean concave points","mean symmetry","mean fractal dimension","radius error","texture error","perimeter error","area error","smoothness error","compactness error","concavity error","concave points error","symmetry error","fractal dimension error","worst radius","worst texture","worst perimeter","worst area","worst smoothness","worst compactness","worst concavity","worst concave points","worst symmetry","worst fractal dimension"],"feature_types":["float","float","float","float","float","float","float","float","float","float","float","float","float","float","float","float","float","float","float","float","float","float","float","float","float","float","float","float","float","float"],"gradient_booster":{"model":{"cats":{"enc":[],"feature_segments":[],"sorted_idx":[]},"gbtree_model_param":{"num_parallel_tree":"1","num_trees":"43"},"iteration_indptr":[0,1,2,3,4,5,6,7,8,9,10,11,12,13,14,15,16,17,18,19,20,21,22,23,24,25,26,27,28,29,30,31,32,33,34,35,36,37,38,39,40,41,42,43],"tree_info":[0,0,0,0,0,0,0,0,0,0,0,0,0,0,0,0,0,0,0,0,0,0,0,0,0,0,0,0,0,0,0,0,0,0,0,0,0,0,0,0,0,0,0],"trees":[{"base_weights":[-9.427297E-8,1.1875817E0,-2.3807602E0,1.4654316E0,-1.305383E0,1.7216627E-1,-2.5139809E0,1.4940963E0,-1.2152924E-2,1.22460745E-1,-1.9159025E0,-1.2152924E-2,-5.1944023E-1,1.5235517E0,2.0111497E-2,-1.0431252E-1,-4.277731E-1,8.0006674E-2,3.076681E-1],"categories":[],"categories_nodes":[],"categories_segments":[],"categories_sizes":[],"default_left":[0,0,0,0,0,0,0,0,0,0,0,0,0,0,0,0,0,0,0],"id":0,"left_children":[1,3,5,7,9,-1,11,13,-1,-1,15,-1,-1,17,-1,-1,-1,-1,-1],"loss_changes":[3.0672055E2,5.2047752E1,1.7755707E1,2.9602966E0,1.0289855E1,0E0,6.974289E0,2.49115E0,0E0,0E0,7.9597855E-1,0E0,0E0,4.3167114E-1,0E0,0E0,0E0,0E0,0E0],"parents":[2147483647,0,0,1,1,2,2,3,3,4,4,6,6,7,7,10,10,13,13],"right_children":[2,4,6,8,10,-1,12,14,-1,-1,16,-1,-1,18,-1,-1,-1,-1,-1],"split_conditions":[1.684E1,1.447E-1,4.757E-1,6.107E-1,2.375E1,1.7216627E-1,1.887E-1,1.357E-1,-1.2152924E-2,1.22460745E-1,5.439E-2,-1.2152924E-2,-5.1944023E-1,3.308E-3,2.0111497E-2,-1.0431252E-1,-4.277731E-1,8.0006674E-2,3.076681E-1],"split_indices":[20,27,11,10,21,0,26,27,0,0,7,0,0,14,0,0,0,0,0],"split_type":[0,0,0,0,0,0,0,0,0,0,0,0,0,0,0,0,0,0,0],"sum_hessian":[1.0648351E2,7.137906E1,3.5104454E1,6.459219E1,6.786861E0,1.1701485E0,3.3934307E1,6.3422047E1,1.1701485E0,1.6382079E0,5.1486535E0,1.1701485E0,3.2764156E1,6.2017868E1,1.4041781E0,1.1701485E0,3.978505E0,1.1701485E0,6.084772E1],"tree_param":{"num_deleted":"0","num_feature":"30","num_nodes":"19","size_leaf_vector":"1"}},{"base_weights":[1.2598916E-2,1.2616017E0,-1.5201161E0,1.33545E0,-2.3235026E-1,2.2443293E-1,-1.842888E0,1.3679689E0,-3.1556714E-2,2.0842421E-1,-9.685511E-1,-3.570576E-1,-3.9155644E-1,2.7999982E-1,-1.3732742E-2,-1.2754545E-2,-2.6469812E-1,1.7391269E-1,-2.5419584E-1],"categories":[],"categories_nodes":[],"categories_segments":[],"categories_sizes":[],"default_left":[0,0,0,0,0,0,0,0,0,0,0,0,0,0,0,0,0,0,0],"id":1,"left_children":[1,3,5,7,-1,9,11,13,-1,-1,15,17,-1,-1,-1,-1,-1,-1,-1],"loss_changes":[2.012451E2,1.1916359E1,2.6994179E1,2.9676208E0,0E0,9.068381E0,6.119766E0,2.6530075E0,0E0,0E0,1.1609991E0,5.69027E0,0E0,0E0,0E0,0E0,0E0,0E0,0E0],"parents":[2147483647,0,0,1,1,2,2,3,3,5,5,6,6,7,7,10,10,11,11],"right_children":[2,4,6,8,-1,10,12,14,-1,-1,16,18,-1,-1,-1,-1,-1,-1,-1],"split_conditions":[1.034E2,1.767E-1,4.744E-2,7.689E2,-2.3235026E-1,2.728E1,2.05E1,4.538E1,-3.1556714E-2,2.0842421E-1,1.153E-1,7.34E-2,-3.9155644E-1,2.7999982E-1,-1.3732742E-2,-1.2754545E-2,-2.6469812E-1,1.7391269E-1,-2.5419584E-1],"split_indices":[22,27,7,23,0,21,21,13,0,0,24,7,0,0,0,0,0,0,0],"split_type":[0,0,0,0,0,0,0,0,0,0,0,0,0,0,0,0,0,0,0],"sum_hessian":[1.03121895E2,5.69172E1,4.6204693E1,5.5669666E1,1.2475325E0,7.2615337E0,3.894316E1,5.456526E1,1.1044064E0,4.3834877E0,2.8780458E0,3.0900338E0,3.5853127E1,5.3400185E1,1.1650769E0,1.1433071E0,1.7347387E0,1.3400372E0,1.7499967E0],"tree_param":{"num_deleted":"0","num_feature":"30","num_nodes":"19","size_leaf_vector":"1"}},{"base_weights":[1.3134073E-2,1.1468865E0,-1.272176E0,1.2356156E0,-4.3383306E-1,1.8281068E-1,-1.536932E0,1.2684381E0,-1.2228983E-2,8.322991E-2,-2.1921794E-1,2.1540578E-1,-7.351289E-1,-3.1255507E-1,-3.2606685E-1,2.5732598E-1,4.1935023E-2,-2.7970424E-1,1.4835885E-1,1.601045E-1,-2.2435284E-1],"categories":[],"categories_nodes":[],"categories_segments":[],"categories_sizes":[],"default_left":[0,0,0,0,0,0,0,0,0,0,0,0,0,0,0,0,0,0,0,0,0],"id":2,"left_children":[1,3,5,7,9,11,13,15,-1,-1,-1,-1,17,19,-1,-1,-1,-1,-1,-1,-1],"loss_changes":[1.4184529E2,7.7890778E0,1.7856598E1,2.1726913E0,2.419897E0,7.2909575E0,3.9170074E0,6.558075E-1,0E0,0E0,0E0,0E0,5.4477882E0,4.483479E0,0E0,0E0,0E0,0E0,0E0,0E0,0E0],"parents":[2147483647,0,0,1,1,2,2,3,3,4,4,5,5,6,6,7,7,12,12,13,13],"right_children":[2,4,6,8,10,12,14,16,-1,-1,-1,-1,18,20,-1,-1,-1,-1,-1,-1,-1],"split_conditions":[1.034E2,4.082E-1,4.744E-2,4.538E1,1.819E1,2.644E1,2.05E1,1.025E2,-1.2228983E-2,8.322991E-2,-2.1921794E-1,2.1540578E-1,1.631E-2,7.34E-2,-3.2606685E-1,2.5732598E-1,4.1935023E-2,-2.7970424E-1,1.4835885E-1,1.601045E-1,-2.2435284E-1],"split_indices":[22,25,7,13,13,21,21,22,0,0,0,0,15,7,0,0,0,0,0,0,0],"split_type":[0,0,0,0,0,0,0,0,0,0,0,0,0,0,0,0,0,0,0,0,0],"sum_hessian":[9.533818E1,5.071285E1,4.4625336E1,4.8224243E1,2.488607E0,6.917762E0,3.7707573E1,4.7055065E1,1.1691784E0,1.2525821E0,1.236025E0,3.416368E0,3.501394E0,2.9807177E0,3.4726856E1,4.6048634E1,1.0064307E0,2.4527655E0,1.0486286E0,1.2592869E0,1.7214307E0],"tree_param":{"num_deleted":"0","num_feature":"30","num_nodes":"21","size_leaf_vector":"1"}},{"base_weights":[1.4377841E-2,8.812941E-1,-1.324081E0,1.1389863E0,-5.831055E-1,8.735533E-2,-1.4266968E0,1.172756E0,-1.95408E-2,4.607389E-1,-1.1544944E0,1.4691378E-1,-1.2323489E-1,-7.302936E-2,-2.906947E-1,4.986234E-2,1.1909868E0,1.8652926E-1,-6.911744E-2,-4.9710225E-2,-2.629263E-1,2.4173617E-1,5.3200673E-2],"categories":[],"categories_nodes":[],"categories_segments":[],"categories_sizes":[],"default_left":[0,0,0,0,0,0,0,0,0,0,0,0,0,0,0,0,0,0,0,0,0,0,0],"id":3,"left_children":[1,3,5,7,9,11,13,15,-1,17,19,-1,-1,-1,-1,-1,21,-1,-1,-1,-1,-1,-1],"loss_changes":[1.0198938E2,2.0790977E1,5.1295547E0,2.0228195E0,5.6866245E0,1.9480966E0,3.8658142E-1,4.531746E-1,0E0,1.7576052E0,5.24899E-1,0E0,0E0,0E0,0E0,0E0,3.8925552E-1,0E0,0E0,0E0,0E0,0E0,0E0],"parents":[2147483647,0,0,1,1,2,2,3,3,4,4,5,5,6,6,7,7,9,9,10,10,16,16],"right_children":[2,4,6,8,10,12,14,16,-1,18,20,-1,-1,-1,-1,-1,22,-1,-1,-1,-1,-1,-1],"split_conditions":[1.677E1,1.357E-1,1.496E1,6.107E-1,2.553E1,1.271E-2,1.992E-1,3.418E-3,-1.95408E-2,1.08E-1,9.938E-2,1.4691378E-1,-1.2323489E-1,-7.302936E-2,-2.906947E-1,4.986234E-2,1.191E-1,1.8652926E-1,-6.911744E-2,-4.9710225E-2,-2.629263E-1,2.4173617E-1,5.3200673E-2],"split_indices":[20,27,1,10,21,17,26,14,0,4,6,0,0,0,0,0,6,0,0,0,0,0,0],"split_type":[0,0,0,0,0,0,0,0,0,0,0,0,0,0,0,0,0,0,0,0,0,0,0],"sum_hessian":[8.589108E1,5.2335243E1,3.355584E1,4.4692806E1,7.6424356E0,2.284345E0,3.1271492E1,4.3555172E1,1.1376369E0,2.7720165E0,4.870419E0,1.1668136E0,1.1175314E0,1.1295086E0,3.0141985E1,1.1273403E0,4.242783E1,1.6497996E0,1.1222169E0,1.1149468E0,3.7554724E0,4.133051E1,1.0973207E0],"tree_param":{"num_deleted":"0","num_feature":"30","num_nodes":"23","size_leaf_vector":"1"}},{"base_weights":[1.31460605E-2,1.028237E0,-9.8881197E-1,1.0948421E0,-1.277683E-1,1.3096477E-1,-1.2142304E0,1.1334751E0,-1.3042273E-2,7.0375127E-1,-1.7870726E-1,-1.1965263E-1,-1.31967E0,2.2947314E-1,6.844979E-2,1.948279E-1,-3.8145762E-2,1.550835E-1,-1.8430878E-1,-5.848062E-2,-2.692465E-1],"categories":[],"categories_nodes":[],"categories_segments":[],"categories_sizes":[],"default_left":[0,0,0,0,0,0,0,0,0,0,0,0,0,0,0,0,0,0,0,0,0],"id":4,"left_children":[1,3,5,7,-1,9,11,13,-1,15,-1,17,19,-1,-1,-1,-1,-1,-1,-1,-1],"loss_changes":[7.9661354E1,5.0187874E0,1.0110245E1,1.7668266E0,0E0,5.0352407E0,3.6408195E0,9.700775E-3,0E0,1.4859371E0,0E0,3.5796537E0,4.2285538E-1,0E0,0E0,0E0,0E0,0E0,0E0,0E0,0E0],"parents":[2147483647,0,0,1,1,2,2,3,3,5,5,6,6,7,7,9,9,11,11,12,12],"right_children":[2,4,6,8,-1,10,12,14,-1,16,-1,18,20,-1,-1,-1,-1,-1,-1,-1,-1],"split_conditions":[1.025E2,4.478E-1,4.744E-2,4.538E1,-1.277683E-1,2.916E1,2.05E1,1.319E-1,-1.3042273E-2,1.739E1,-1.7870726E-1,7.34E-2,1.102E-1,2.2947314E-1,6.844979E-2,1.948279E-1,-3.8145762E-2,1.550835E-1,-1.8430878E-1,-5.848062E-2,-2.692465E-1],"split_indices":[22,25,7,13,0,21,21,6,0,20,0,7,24,0,0,0,0,0,0,0,0],"split_type":[0,0,0,0,0,0,0,0,0,0,0,0,0,0,0,0,0,0,0,0,0],"sum_hessian":[7.632405E1,3.7900524E1,3.8423523E1,3.677452E1,1.1260028E0,6.5089636E0,3.1914558E1,3.5611473E1,1.1630504E0,4.375662E0,2.133302E0,2.9917474E0,2.8922812E1,3.4554726E1,1.0567476E0,3.291602E0,1.0840597E0,1.429337E0,1.5624102E0,1.0316886E0,2.7891123E1],"tree_param":{"num_deleted":"0","num_feature":"30","num_nodes":"21","size_leaf_vector":"1"}},{"base_weights":[1.0975553E-2,9.677945E-1,-9.0564185E-1,1.0377893E0,-1.15147166E-1,1.1228587E-1,-1.1221789E0,1.0801579E0,-1.1616968E-2,6.43051E-1,-7.81142E-1,-1.0902429E-1,-1.224317E0,1.0973945E0,5.648112E-2,1.8221766E-1,-3.421895E-2,-1.8694492E-1,-4.632428E-2,1.4450774E-1,-1.6924983E-1,-5.3150315E-2,-2.5039166E-1,2.2557878E-1,4.720296E-1,1.1991282E-1,2.3290379E-2],"categories":[],"categories_nodes":[],"categories_segments":[],"categories_sizes":[],"default_left":[0,0,0,0,0,0,0,0,0,0,0,0,0,0,0,0,0,0,0,0,0,0,0,0,0,0,0],"id":5,"left_children":[1,3,5,7,-1,9,11,13,-1,15,17,19,21,23,-1,-1,-1,-1,-1,-1,-1,-1,-1,-1,25,-1,-1],"loss_changes":[6.0651176E1,4.2524395E0,7.9124203E0,1.5819054E0,0E0,3.8717322E0,2.890255E0,1.2394714E-1,0E0,1.2482777E0,4.509163E-2,2.9249172E0,3.6801147E-1,5.00679E-2,0E0,0E0,0E0,0E0,0E0,0E0,0E0,0E0,0E0,0E0,7.2565734E-2,0E0,0E0],"parents":[2147483647,0,0,1,1,2,2,3,3,5,5,6,6,7,7,9,9,10,10,11,11,12,12,13,13,24,24],"right_children":[2,4,6,8,-1,10,12,14,-1,16,18,20,22,24,-1,-1,-1,-1,-1,-1,-1,-1,-1,-1,26,-1,-1],"split_conditions":[1.025E2,4.478E-1,4.744E-2,4.538E1,-1.15147166E-1,2.916E1,2.05E1,3.585E-1,-1.1616968E-2,9.397E2,5.688E-2,7.34E-2,1.102E-1,3.321E1,5.648112E-2,1.8221766E-1,-3.421895E-2,-1.8694492E-1,-4.632428E-2,1.4450774E-1,-1.6924983E-1,-5.3150315E-2,-2.5039166E-1,2.2557878E-1,1.164E1,1.1991282E-1,2.3290379E-2],"split_indices":[22,25,7,13,0,21,21,28,0,23,9,7,24,21,0,0,0,0,0,0,0,0,0,0,0,0,0],"split_type":[0,0,0,0,0,0,0,0,0,0,0,0,0,0,0,0,0,0,0,0,0,0,0,0,0,0,0],"sum_hessian":[6.715529E1,3.2829796E1,3.4325497E1,3.1719072E1,1.1107222E0,6.105474E0,2.822002E1,3.055221E1,1.166863E0,4.0059023E0,2.0995722E0,2.773711E0,2.544631E1,2.9538385E1,1.0138243E0,2.9241314E0,1.0817707E0,1.0930887E0,1.0064833E0,1.3128192E0,1.4608916E0,1.010704E0,2.4435606E1,2.739856E1,2.1398253E0,1.0699127E0,1.0699127E0],"tree_param":{"num_deleted":"0","num_feature":"30","num_nodes":"27","size_leaf_vector":"1"}},{"base_weights":[9.698208E-3,9.152119E-1,-8.4063727E-1,9.904433E-1,-1.06770694E-1,-1.9175522E-1,-2.3232518E-1,1.0371782E0,-1.0348123E-2,7.5316906E-1,-6.859402E-1,1.0573467E0,5.2303147E-2,1.8188582E-1,3.175388E-2,7.061848E-2,-9.1031474E-1,2.1820275E-1,4.402699E-1,-2.186601E-1,7.173849E-3,1.1674465E-1,1.506664E-2],"categories":[],"categories_nodes":[],"categories_segments":[],"categories_sizes":[],"default_left":[0,0,0,0,0,0,0,0,0,0,0,0,0,0,0,0,0,0,0,0,0,0,0],"id":6,"left_children":[1,3,5,7,-1,9,-1,11,-1,13,15,17,-1,-1,-1,-1,19,-1,21,-1,-1,-1,-1],"loss_changes":[4.6875114E1,3.7422028E0,6.317627E0,1.4355831E0,0E0,5.928912E0,0E0,1.4904213E-1,0E0,2.6955295E-1,2.2176259E0,6.363869E-2,0E0,0E0,0E0,0E0,1.2457423E0,0E0,1.1471605E-1,0E0,0E0,0E0,0E0],"parents":[2147483647,0,0,1,1,2,2,3,3,5,5,7,7,9,9,10,10,11,11,16,16,18,18],"right_children":[2,4,6,8,-1,10,-1,12,-1,14,16,18,-1,-1,-1,-1,20,-1,22,-1,-1,-1,-1],"split_conditions":[1.025E2,1.785E-1,1.514E-1,4.538E1,-1.06770694E-1,2.375E1,-2.3232518E-1,2.249E-1,-1.0348123E-2,5.515E-3,8.449E-2,3.321E1,5.2303147E-2,1.8188582E-1,3.175388E-2,7.061848E-2,3.101E-1,2.1820275E-1,5.914E-2,-2.186601E-1,7.173849E-3,1.1674465E-1,1.506664E-2],"split_indices":[22,24,27,13,0,21,0,8,0,14,27,21,0,0,0,0,25,0,9,0,0,0,0],"split_type":[0,0,0,0,0,0,0,0,0,0,0,0,0,0,0,0,0,0,0,0,0,0,0],"sum_hessian":[5.887835E1,2.8477089E1,3.040126E1,2.737248E1,1.1046071E0,1.0590281E1,1.981098E1,2.620229E1,1.1701915E0,3.4567032E0,7.1335773E0,2.5184301E1,1.0179878E0,2.3174734E0,1.1392299E0,1.1650046E0,5.9685726E0,2.315306E1,2.0312412E0,4.871058E0,1.0975146E0,1.0277303E0,1.0035108E0],"tree_param":{"num_deleted":"0","num_feature":"30","num_nodes":"23","size_leaf_vector":"1"}},{"base_weights":[1.2342791E-2,6.805029E-1,-1.008679E0,9.3013555E-1,-3.7974852E-1,1.9831387E-2,-1.0752696E0,9.7992283E-1,-2.2803573E-2,1.297799E-1,-7.449328E-1,-4.0648114E-3,-2.2638574E-1,2.0481203E-1,3.8059816E-1,1.9347642E-2,-2.0104924E-1,-2.76053E-2,1.3358726E-1],"categories":[],"categories_nodes":[],"categories_segments":[],"categories_sizes":[],"default_left":[0,0,0,0,0,0,0,0,0,0,0,0,0,0,0,0,0,0,0],"id":7,"left_children":[1,3,5,7,9,-1,11,13,-1,-1,15,-1,-1,-1,17,-1,-1,-1,-1],"loss_changes":[3.658585E1,8.929885E0,1.6718884E0,1.4903393E0,3.0699563E0,0E0,1.1783714E0,2.825699E-1,0E0,0E0,1.3126197E0,0E0,0E0,0E0,5.8915913E-1,0E0,0E0,0E0,0E0],"parents":[2147483647,0,0,1,1,2,2,3,3,4,4,6,6,7,7,10,10,14,14],"right_children":[2,4,6,8,10,-1,12,14,-1,-1,16,-1,-1,-1,18,-1,-1,-1,-1],"split_conditions":[1.684E1,1.357E-1,5.664E-1,6.107E-1,1.323E-1,1.9831387E-2,1.887E-1,1.108E-1,-2.2803573E-2,1.297799E-1,9.759E1,-4.0648114E-3,-2.2638574E-1,2.0481203E-1,2.472E-1,1.9347642E-2,-2.0104924E-1,-2.76053E-2,1.3358726E-1],"split_indices":[20,27,11,10,24,0,26,27,0,0,22,0,0,0,25,0,0,0,0],"split_type":[0,0,0,0,0,0,0,0,0,0,0,0,0,0,0,0,0,0,0],"sum_hessian":[5.1622574E1,3.1404726E1,2.021785E1,2.551907E1,5.885657E0,1.1186312E0,1.9099218E1,2.4416363E1,1.1027058E0,1.3384923E0,4.5471644E0,1.0427525E0,1.8056465E1,2.2081482E1,2.3348818E0,1.2225792E0,3.3245854E0,1.0176799E0,1.3172019E0],"tree_param":{"num_deleted":"0","num_feature":"30","num_nodes":"19","size_leaf_vector":"1"}},{"base_weights":[1.2350182E-2,6.2438154E-1,-9.791599E-1,8.0519056E-1,-6.6765404E-1,1.9384133E-2,-1.0589981E0,9.419154E-1,1.23846464E-1,-5.860272E-3,-1.7500572E-1,-5.3103447E-2,-2.1913119E-1,1.0037854E0,-3.0874213E-2,1.5909228E-1,-1.4132817E-1,2.0792814E-1,4.2925216E-2],"categories":[],"categories_nodes":[],"categories_segments":[],"categories_sizes":[],"default_left":[0,0,0,0,0,0,0,0,0,0,0,0,0,0,0,0,0,0,0],"id":8,"left_children":[1,3,5,7,9,-1,11,13,15,-1,-1,-1,-1,17,-1,-1,-1,-1,-1],"loss_changes":[2.8548216E1,7.330182E0,1.6456718E0,2.3017197E0,5.192504E-1,0E0,1.9786072E-1,1.6112137E0,3.6243386E0,0E0,0E0,0E0,0E0,3.556919E-1,0E0,0E0,0E0,0E0,0E0],"parents":[2147483647,0,0,1,1,2,2,3,3,4,4,6,6,7,7,8,8,13,13],"right_children":[2,4,6,8,10,-1,12,14,16,-1,-1,-1,-1,18,-1,-1,-1,-1,-1],"split_conditions":[8.887E2,1.599E-1,8.206E-2,2.925E1,1.767E-1,1.9384133E-2,2.893E1,6.869E2,9.14E-2,-5.860272E-3,-1.7500572E-1,-5.3103447E-2,-2.1913119E-1,2.105E0,-3.0874213E-2,1.5909228E-1,-1.4132817E-1,2.0792814E-1,4.2925216E-2],"split_indices":[23,27,4,21,27,0,13,3,27,0,0,0,0,11,0,0,0,0,0],"split_type":[0,0,0,0,0,0,0,0,0,0,0,0,0,0,0,0,0,0,0],"sum_hessian":[4.503695E1,2.807643E1,1.696052E1,2.4960264E1,3.1161647E0,1.1566695E0,1.580385E1,2.0470104E1,4.4901595E0,1.0439408E0,2.072224E0,1.0618821E0,1.4741968E1,1.9456438E1,1.0136666E0,2.5058525E0,1.9843072E0,1.830725E1,1.1491884E0],"tree_param":{"num_deleted":"0","num_feature":"30","num_nodes":"19","size_leaf_vector":"1"}},{"base_weights":[7.7837394E-3,7.7932715E-1,-6.866489E-1,8.830501E-1,-4.603469E-2,3.333824E-1,-8.6647457E-1,-3.0244593E-2,9.7071475E-1,1.5587321E-1,-9.136563E-2,2.6210847E-1,-1.023256E0,2.0473118E-1,4.6925977E-2,1.2969375E-1,-4.7195114E-2,-4.89932E-2,-2.1243195E-1],"categories":[],"categories_nodes":[],"categories_segments":[],"categories_sizes":[],"default_left":[0,0,0,0,0,0,0,0,0,0,0,0,0,0,0,0,0,0,0],"id":9,"left_children":[1,3,5,7,-1,9,11,-1,13,-1,-1,15,17,-1,-1,-1,-1,-1,-1],"loss_changes":[2.2228249E1,2.260542E0,4.29506E0,1.7810059E0,0E0,1.7641239E0,3.6026945E0,0E0,4.1256905E-1,0E0,0E0,7.4856955E-1,2.469883E-1,0E0,0E0,0E0,0E0,0E0,0E0],"parents":[2147483647,0,0,1,1,2,2,3,3,5,5,6,6,8,8,11,11,12,12],"right_children":[2,4,6,8,-1,10,12,-1,14,-1,-1,16,18,-1,-1,-1,-1,-1,-1],"split_conditions":[1.025E2,4.082E-1,2.05E1,1.988E-1,-4.603469E-2,6.526E-2,1.092E-1,-3.0244593E-2,3.321E1,1.5587321E-1,-9.136563E-2,9.784E1,3.088E-2,2.0473118E-1,4.6925977E-2,1.2969375E-1,-4.7195114E-2,-4.89932E-2,-2.1243195E-1],"split_indices":[22,25,21,28,0,7,24,0,21,0,0,2,7,0,0,0,0,0,0],"split_type":[0,0,0,0,0,0,0,0,0,0,0,0,0,0,0,0,0,0,0],"sum_hessian":[3.948849E1,1.8647783E1,2.0840708E1,1.7023893E1,1.6238896E0,2.9954712E0,1.7845236E1,1.2735428E0,1.575035E1,1.923563E0,1.0719081E0,2.094716E0,1.5750521E1,1.4329088E1,1.4212617E0,1.0096283E0,1.0850879E0,1.0972006E0,1.465332E1],"tree_param":{"num_deleted":"0","num_feature":"30","num_nodes":"19","size_leaf_vector":"1"}},{"base_weights":[9.398989E-3,5.4803914E-1,-8.8970906E-1,6.902558E-1,-1.5557933E-1,1.3928346E-2,-1.9755612E-1,9.0274763E-1,-7.969513E-3,3.0439515E-2,9.4672704E-1,1.47146E-1,-6.181019E-1,1.9628365E-1,4.582679E-2,3.2114845E-2,-1.9931291E-1],"categories":[],"categories_nodes":[],"categories_segments":[],"categories_sizes":[],"default_left":[0,0,0,0,0,0,0,0,0,0,0,0,0,0,0,0,0],"id":10,"left_children":[1,3,5,7,-1,-1,-1,9,11,-1,13,-1,15,-1,-1,-1,-1],"loss_changes":[1.7751362E1,4.857294E0,1.3611507E0,3.1557808E0,0E0,0E0,0E0,3.9325333E-1,3.1513076E0,0E0,1.531725E-1,0E0,1.2822297E0,0E0,0E0,0E0,0E0],"parents":[2147483647,0,0,1,1,2,2,3,3,7,7,8,8,10,10,12,12],"right_children":[2,4,6,8,-1,-1,-1,10,12,-1,14,-1,16,-1,-1,-1,-1],"split_conditions":[8.887E2,1.767E-1,1.992E-1,2.146E1,-1.5557933E-1,1.3928346E-2,-1.9755612E-1,2.048E-1,6.458E2,3.0439515E-2,1.556E-1,1.47146E-1,8.983E-2,1.9628365E-1,4.582679E-2,3.2114845E-2,-1.9931291E-1],"split_indices":[23,27,26,1,0,0,0,28,23,0,27,0,4,0,0,0,0],"split_type":[0,0,0,0,0,0,0,0,0,0,0,0,0,0,0,0,0],"sum_hessian":[3.4647163E1,2.1911077E1,1.2736086E1,2.0221579E1,1.6894981E0,1.2081054E0,1.152798E1,1.5278833E1,4.9427457E0,1.0926343E0,1.4186199E1,2.1347787E0,2.807967E0,1.318131E1,1.0048892E0,1.1066943E0,1.7012726E0],"tree_param":{"num_deleted":"0","num_feature":"30","num_nodes":"17","size_leaf_vector":"1"}},{"base_weights":[6.7564608E-3,6.427756E-1,-6.660117E-1,7.962301E-1,-9.4082996E-2,1.9497752E-1,-8.7321895E-1,8.8340265E-1,-3.6643203E-2,1.3304682E-1,-9.548481E-2,1.3787224E-2,-1.9835077E-1,1.9130227E-1,3.729297E-2],"categories":[],"categories_nodes":[],"categories_segments":[],"categories_sizes":[],"default_left":[0,0,0,0,0,0,0,0,0,0,0,0,0,0,0],"id":11,"left_children":[1,3,5,7,-1,9,11,13,-1,-1,-1,-1,-1,-1,-1],"loss_changes":[1.3895967E1,3.2253013E0,2.9866476E0,1.4457912E0,0E0,1.5443783E0,1.5097885E0,5.3398514E-1,0E0,0E0,0E0,0E0,0E0,0E0,0E0],"parents":[2147483647,0,0,1,1,2,2,3,3,5,5,6,6,7,7],"right_children":[2,4,6,8,-1,10,12,14,-1,-1,-1,-1,-1,-1,-1],"split_conditions":[7.689E2,3.613E-1,1.7E1,4.538E1,-9.4082996E-2,6.367E-2,1.092E-1,3.321E1,-3.6643203E-2,1.3304682E-1,-9.548481E-2,1.3787224E-2,-1.9835077E-1,1.9130227E-1,3.729297E-2],"split_indices":[23,28,1,13,0,7,24,21,0,0,0,0,0,0,0],"split_type":[0,0,0,0,0,0,0,0,0,0,0,0,0,0,0],"sum_hessian":[3.0474825E1,1.5688175E1,1.478665E1,1.4037784E1,1.6503913E0,2.879743E0,1.1906907E1,1.2980549E1,1.0572351E0,1.7008686E0,1.1788746E0,1.3773891E0,1.0529518E1,1.1411079E1,1.5694686E0],"tree_param":{"num_deleted":"0","num_feature":"30","num_nodes":"15","size_leaf_vector":"1"}},{"base_weights":[5.3170533E-3,5.7468253E-1,-6.6896415E-1,7.367261E-1,-6.997683E-2,6.3122034E-2,-1.8391757E-1,8.8437647E-1,1.4266165E-1,1.438661E-1,-1.01621024E-1,2.216313E-2,1.9071285E-1,1.276735E-1,-8.3919965E-2],"categories":[],"categories_nodes":[],"categories_segments":[],"categories_sizes":[],"default_left":[0,0,0,0,0,0,0,0,0,0,0,0,0,0,0],"id":12,"left_children":[1,3,5,7,-1,9,-1,11,13,-1,-1,-1,-1,-1,-1],"loss_changes":[1.1132375E1,2.6124449E0,2.4944725E0,1.0750642E0,0E0,1.9857146E0,0E0,4.7109032E-1,1.3600172E0,0E0,0E0,0E0,0E0,0E0,0E0],"parents":[2147483647,0,0,1,1,2,2,3,3,5,5,7,7,8,8],"right_children":[2,4,6,8,-1,10,-1,12,14,-1,-1,-1,-1,-1,-1],"split_conditions":[4.938E-2,6.988E2,2.375E1,2.966E1,-6.997683E-2,8.097E2,-1.8391757E-1,2.1E-1,1.44E1,1.438661E-1,-1.01621024E-1,2.216313E-2,1.9071285E-1,1.276735E-1,-8.3919965E-2],"split_indices":[7,3,21,21,0,23,0,28,20,0,0,0,0,0,0],"split_type":[0,0,0,0,0,0,0,0,0,0,0,0,0,0,0],"sum_hessian":[2.6995794E1,1.4716684E1,1.227911E1,1.2694888E1,2.0217957E0,3.3223808E0,8.956729E0,9.776359E0,2.91853E0,1.4255174E0,1.8968635E0,1.0162075E0,8.760151E0,1.4791297E0,1.4394002E0],"tree_param":{"num_deleted":"0","num_feature":"30","num_nodes":"15","size_leaf_vector":"1"}},{"base_weights":[8.0484385E-3,4.7503284E-1,-7.658858E-1,7.209622E-1,-2.967176E-1,2.2197979E-2,-1.8322664E-1,-5.8767505E-2,8.369876E-1,6.0177196E-2,-6.474259E-1,1.8612288E-1,2.817739E-1,-1.536323E-1,-3.998452E-2,-3.0808685E-2,1.13390684E-1],"categories":[],"categories_nodes":[],"categories_segments":[],"categories_sizes":[],"default_left":[0,0,0,0,0,0,0,0,0,0,0,0,0,0,0,0,0],"id":13,"left_children":[1,3,5,7,9,-1,-1,-1,11,-1,13,-1,15,-1,-1,-1,-1],"loss_changes":[9.409849E0,3.293843E0,1.3930707E0,1.7292118E0,1.1651633E0,0E0,0E0,0E0,3.3895397E-1,0E0,2.121067E-2,0E0,4.7300422E-1,0E0,0E0,0E0,0E0],"parents":[2147483647,0,0,1,1,2,2,3,3,4,4,8,8,10,10,12,12],"right_children":[2,4,6,8,10,-1,-1,-1,12,-1,14,-1,16,-1,-1,-1,-1],"split_conditions":[1.456E-1,3.574E1,7.112E2,3.418E-3,1.045E-1,2.2197979E-2,-1.8322664E-1,-5.8767505E-2,2.241E1,6.0177196E-2,1.271E-1,1.8612288E-1,2.542E1,-1.536323E-1,-3.998452E-2,-3.0808685E-2,1.13390684E-1],"split_indices":[27,13,23,14,24,0,0,0,1,0,24,0,1,0,0,0,0],"split_type":[0,0,0,0,0,0,0,0,0,0,0,0,0,0,0,0,0],"sum_hessian":[2.402946E1,1.5227529E1,8.801933E0,1.1597597E1,3.6299314E0,1.3257669E0,7.4761662E0,1.0327007E0,1.0564897E1,1.3949728E0,2.234959E0,8.461825E0,2.1030707E0,1.1957877E0,1.0391711E0,1.0137198E0,1.0893508E0],"tree_param":{"num_deleted":"0","num_feature":"30","num_nodes":"17","size_leaf_vector":"1"}},{"base_weights":[4.4157733E-3,4.3202746E-1,-7.186726E-1,6.774864E-1,-2.7430964E-1,1.9699102E-2,-1.7560722E-1,-5.2847207E-2,7.986466E-1,1.2595958E-1,-1.3951786E-1,1.8250169E-1,8.349122E-3,1.0229068E-1,-6.1467845E-2],"categories":[],"categories_nodes":[],"categories_segments":[],"categories_sizes":[],"default_left":[0,0,0,0,0,0,0,0,0,0,0,0,0,0,0],"id":14,"left_children":[1,3,5,7,9,-1,-1,-1,11,13,-1,-1,-1,-1,-1],"loss_changes":[7.254688E0,2.7409406E0,1.2222247E0,1.4917812E0,8.523843E-1,0E0,0E0,0E0,8.404417E-1,6.860678E-1,0E0,0E0,0E0,0E0,0E0],"parents":[2147483647,0,0,1,1,2,2,3,3,4,4,8,8,9,9],"right_children":[2,4,6,8,10,-1,-1,-1,12,14,-1,-1,-1,-1,-1],"split_conditions":[1.456E-1,3.574E1,7.112E2,3.418E-3,2.146E1,1.9699102E-2,-1.7560722E-1,-5.2847207E-2,3.321E1,8.785E-2,-1.3951786E-1,1.8250169E-1,8.349122E-3,1.0229068E-1,-6.1467845E-2],"split_indices":[27,13,23,14,1,0,0,0,21,4,0,0,0,0,0],"split_type":[0,0,0,0,0,0,0,0,0,0,0,0,0,0,0],"sum_hessian":[2.145853E1,1.3737268E1,7.7212634E0,1.0224873E1,3.5123959E0,1.3223898E0,6.3988733E0,1.0309435E0,9.193929E0,2.16629E0,1.3461058E0,7.8130193E0,1.3809096E0,1.0509331E0,1.115357E0],"tree_param":{"num_deleted":"0","num_feature":"30","num_nodes":"15","size_leaf_vector":"1"}},{"base_weights":[-5.690149E-4,7.7916706E-1,-3.6713412E-1,1.7201708E-1,3.137776E-2,3.7982863E-1,-6.797186E-1,1.318336E-1,-6.780845E-2,4.610949E-2,-8.7187815E-1,-7.035944E-2,-1.8970041E-1],"categories":[],"categories_nodes":[],"categories_segments":[],"categories_sizes":[],"default_left":[0,0,0,0,0,0,0,0,0,0,0,0,0],"id":15,"left_children":[1,3,5,-1,-1,7,9,-1,-1,-1,11,-1,-1],"loss_changes":[6.0761337E0,2.0737791E-1,3.634252E0,0E0,0E0,1.2089039E0,2.0467272E0,0E0,0E0,0E0,2.1861076E-2,0E0,0E0],"parents":[2147483647,0,0,1,1,2,2,5,5,6,6,10,10],"right_children":[2,4,6,-1,-1,8,10,-1,-1,-1,12,-1,-1],"split_conditions":[9.176E1,3.168E0,2.375E1,1.7201708E-1,3.137776E-2,7.34E-2,8.449E-2,1.318336E-1,-6.780845E-2,4.610949E-2,8.946E-2,-7.035944E-2,-1.8970041E-1],"split_indices":[22,12,21,0,0,7,27,0,0,0,4,0,0],"split_type":[0,0,0,0,0,0,0,0,0,0,0,0,0],"sum_hessian":[1.925748E1,5.79823E0,1.34592495E1,4.7928357E0,1.0053943E0,3.9072428E0,9.552007E0,2.8736491E0,1.0335939E0,1.6301521E0,7.9218545E0,1.7352362E0,6.1866183E0],"tree_param":{"num_deleted":"0","num_feature":"30","num_nodes":"13","size_leaf_vector":"1"}},{"base_weights":[2.2783112E-3,3.8423842E-1,-7.0144236E-1,7.2909933E-1,-2.5663874E-1,-2.4845408E-2,-1.6131209E-1,3.4423307E-2,1.718043E-1,1.2558313E-1,-1.6001713E-1],"categories":[],"categories_nodes":[],"categories_segments":[],"categories_sizes":[],"default_left":[0,0,0,0,0,0,0,0,0,0,0],"id":16,"left_children":[1,3,5,7,9,-1,-1,-1,-1,-1,-1],"loss_changes":[5.2030487E0,2.9593053E0,3.130827E-1,4.6111155E-1,2.967388E0,0E0,0E0,0E0,0E0,0E0,0E0],"parents":[2147483647,0,0,1,1,2,2,3,3,4,4],"right_children":[2,4,6,8,10,-1,-1,-1,-1,-1,-1],"split_conditions":[6.988E2,1.38E-1,1.992E-1,1.104E-2,9.162E1,-2.4845408E-2,-1.6131209E-1,3.4423307E-2,1.718043E-1,1.2558313E-1,-1.6001713E-1],"split_indices":[3,24,26,15,22,0,0,0,0,0,0],"split_type":[0,0,0,0,0,0,0,0,0,0,0],"sum_hessian":[1.735436E1,1.1543084E1,5.8112764E0,7.415232E0,4.127852E0,1.231385E0,4.579891E0,1.8422371E0,5.572995E0,1.5117633E0,2.6160886E0],"tree_param":{"num_deleted":"0","num_feature":"30","num_nodes":"11","size_leaf_vector":"1"}},{"base_weights":[1.7319946E-3,6.2898636E-1,-3.6995712E-1,1.6424869E-1,1.02722095E-2,2.4365224E-1,-7.733987E-1,5.771762E-1,-1.01897076E-1,-1.980008E-2,-1.8024051E-1,1.3814244E-1,4.5338526E-2],"categories":[],"categories_nodes":[],"categories_segments":[],"categories_sizes":[],"default_left":[0,0,0,0,0,0,0,0,0,0,0,0,0],"id":17,"left_children":[1,3,5,-1,-1,7,9,11,-1,-1,-1,-1,-1],"loss_changes":[4.1170154E0,6.873765E-1,2.9341164E0,0E0,0E0,1.5902123E0,5.0817776E-1,4.3871403E-3,0E0,0E0,0E0,0E0,0E0],"parents":[2147483647,0,0,1,1,2,2,5,5,6,6,7,7],"right_children":[2,4,6,-1,-1,8,10,12,-1,-1,-1,-1,-1],"split_conditions":[6.483E2,3.51E-2,2.73E-1,1.6424869E-1,1.02722095E-2,5.096E1,2.275E1,1.992E-1,-1.01897076E-1,-1.980008E-2,-1.8024051E-1,1.3814244E-1,4.5338526E-2],"split_indices":[23,7,28,0,0,13,21,26,0,0,0,0,0],"split_type":[0,0,0,0,0,0,0,0,0,0,0,0,0],"sum_hessian":[1.5660621E1,5.5694695E0,1.0091151E1,3.8622112E0,1.707258E0,4.160047E0,5.9311047E0,3.0451515E0,1.1148955E0,1.2276486E0,4.703456E0,1.5668458E0,1.4783057E0],"tree_param":{"num_deleted":"0","num_feature":"30","num_nodes":"13","size_leaf_vector":"1"}},{"base_weights":[5.5298097E-3,3.4685507E-1,-6.2860525E-1,6.620509E-1,-2.3580256E-1,2.5272036E-3,-1.5346645E-1,2.09852E-2,1.6093718E-1,1.1293433E-1,-7.020378E-1,-3.790578E-2,-1.6993219E-1],"categories":[],"categories_nodes":[],"categories_segments":[],"categories_sizes":[],"default_left":[0,0,0,0,0,0,0,0,0,0,0,0,0],"id":18,"left_children":[1,3,5,7,9,-1,-1,-1,-1,-1,11,-1,-1],"loss_changes":[3.5348246E0,2.103967E0,5.183172E-1,4.8338985E-1,2.0612152E0,0E0,0E0,0E0,0E0,0E0,8.5963726E-2,0E0,0E0],"parents":[2147483647,0,0,1,1,2,2,3,3,4,4,10,10],"right_children":[2,4,6,8,10,-1,-1,-1,-1,-1,12,-1,-1],"split_conditions":[6.988E2,1.38E-1,2.2E1,1.104E-2,9.162E1,2.5272036E-3,-1.5346645E-1,2.09852E-2,1.6093718E-1,1.1293433E-1,2.726E1,-3.790578E-2,-1.6993219E-1],"split_indices":[3,24,21,15,22,0,0,0,0,0,21,0,0],"split_type":[0,0,0,0,0,0,0,0,0,0,0,0,0],"sum_hessian":[1.4323844E1,9.606266E0,4.7175775E0,6.1455145E0,3.4607522E0,1.000741E0,3.7168367E0,1.6064463E0,4.539068E0,1.1960819E0,2.2646704E0,1.017175E0,1.2474954E0],"tree_param":{"num_deleted":"0","num_feature":"30","num_nodes":"13","size_leaf_vector":"1"}},{"base_weights":[8.359207E-4,3.8975105E-1,-4.9345464E-1,1.5985732E-1,-9.770525E-2,4.482275E-2,-6.916116E-1,1.0967982E-1,-4.5159253E-1,-9.349239E-3,-1.6586947E-1,-1.380589E-1,-1.3724588E-2],"categories":[],"categories_nodes":[],"categories_segments":[],"categories_sizes":[],"default_left":[0,0,0,0,0,0,0,0,0,0,0,0,0],"id":19,"left_children":[1,3,5,-1,7,-1,9,-1,11,-1,-1,-1,-1],"loss_changes":[2.9009712E0,1.7638413E0,1.0999752E0,0E0,1.3329227E0,0E0,4.4552302E-1,0E0,2.8311002E-1,0E0,0E0,0E0,0E0],"parents":[2147483647,0,0,1,1,2,2,4,4,6,6,8,8],"right_children":[2,4,6,-1,8,-1,10,-1,12,-1,-1,-1,-1],"split_conditions":[3.133E1,2.584E1,1.045E-1,1.5985732E-1,8.449E-2,4.482275E-2,1.695E1,1.0967982E-1,1.164E-2,-9.349239E-3,-1.6586947E-1,-1.380589E-1,-1.3724588E-2],"split_indices":[13,21,24,0,27,0,1,0,17,0,0,0,0],"split_type":[0,0,0,0,0,0,0,0,0,0,0,0,0],"sum_hessian":[1.30901375E1,7.444326E0,5.6458116E0,3.697863E0,3.7464628E0,1.1933712E0,4.4524407E0,1.1313233E0,2.6151395E0,1.0193473E0,3.4330933E0,1.1166571E0,1.4984823E0],"tree_param":{"num_deleted":"0","num_feature":"30","num_nodes":"13","size_leaf_vector":"1"}},{"base_weights":[5.377248E-4,2.482733E-1,-1.3789809E-1,1.4021389E-1,-7.757889E-2,4.945711E-1,-5.494232E-1,3.6688868E-3,1.3378568E-1,-1.5291148E-1,-1.5861746E-2],"categories":[],"categories_nodes":[],"categories_segments":[],"categories_sizes":[],"default_left":[0,0,0,0,0,0,0,0,0,0,0],"id":20,"left_children":[1,3,-1,-1,5,7,9,-1,-1,-1,-1],"loss_changes":[2.4011428E0,1.5791162E0,0E0,0E0,2.1371267E0,2.9073572E-1,3.702662E-1,0E0,0E0,0E0,0E0],"parents":[2147483647,0,0,1,1,4,4,5,5,6,6],"right_children":[2,4,-1,-1,6,8,10,-1,-1,-1,-1],"split_conditions":[1.204E2,2.331E1,-1.3789809E-1,1.4021389E-1,9.037E-2,5.688E-2,1.791E-2,3.6688868E-3,1.3378568E-1,-1.5291148E-1,-1.5861746E-2],"split_indices":[22,21,0,0,4,9,18,0,0,0,0],"split_type":[0,0,0,0,0,0,0,0,0,0,0],"sum_hessian":[1.2044938E1,9.334016E0,2.7109227E0,3.4242575E0,5.909758E0,2.649209E0,3.2605493E0,1.0061891E0,1.6430198E0,1.8072102E0,1.4533392E0],"tree_param":{"num_deleted":"0","num_feature":"30","num_nodes":"11","size_leaf_vector":"1"}},{"base_weights":[-8.152223E-4,5.955968E-1,-2.7032852E-1,2.7346624E-2,1.4014606E-1,2.5499424E-1,-6.0257465E-1,1.04854606E-1,-4.0233962E-2,-1.6269369E-2,-1.5804099E-1],"categories":[],"categories_nodes":[],"categories_segments":[],"categories_sizes":[],"default_left":[0,0,0,0,0,0,0,0,0,0,0],"id":21,"left_children":[1,3,5,-1,-1,7,9,-1,-1,-1,-1],"loss_changes":[2.116061E0,1.01870894E-1,1.7358265E0,0E0,0E0,6.2318057E-1,5.07869E-1,0E0,0E0,0E0,0E0],"parents":[2147483647,0,0,1,1,2,2,5,5,6,6],"right_children":[2,4,6,-1,-1,8,10,-1,-1,-1,-1],"split_conditions":[9.176E1,1.067E-2,2.73E-1,2.7346624E-2,1.4014606E-1,1.977E1,2.553E1,1.04854606E-1,-4.0233962E-2,-1.6269369E-2,-1.5804099E-1],"split_indices":[22,15,28,0,0,1,21,0,0,0,0],"split_type":[0,0,0,0,0,0,0,0,0,0,0],"sum_hessian":[1.1162763E1,3.0977612E0,8.065002E0,1.0062908E0,2.0914702E0,3.2146893E0,4.8503127E0,1.9275353E0,1.287154E0,1.6632984E0,3.1870143E0],"tree_param":{"num_deleted":"0","num_feature":"30","num_nodes":"11","size_leaf_vector":"1"}},{"base_weights":[4.383822E-3,3.3760622E-1,-4.5486292E-1,1.4651391E-1,-2.9873624E-2,3.5086535E-2,-6.734E-1,9.115965E-2,-3.342254E-1,-1.6090272E-1,-2.868898E-2,1.0585184E-2,-1.0755245E-1],"categories":[],"categories_nodes":[],"categories_segments":[],"categories_sizes":[],"default_left":[0,0,0,0,0,0,0,0,0,0,0,0,0],"id":22,"left_children":[1,3,5,-1,7,-1,9,-1,11,-1,-1,-1,-1],"loss_changes":[1.9119195E0,1.0716448E0,8.423166E-1,0E0,8.481819E-1,0E0,1.7021763E-1,0E0,3.0196854E-1,0E0,0E0,0E0,0E0],"parents":[2147483647,0,0,1,1,2,2,4,4,6,6,8,8],"right_children":[2,4,6,-1,8,-1,10,-1,12,-1,-1,-1,-1],"split_conditions":[3.444E1,2.08E-1,8.759E-2,1.4651391E-1,2.553E1,3.5086535E-2,2.254E-2,9.115965E-2,1.351E-1,-1.6090272E-1,-2.868898E-2,1.0585184E-2,-1.0755245E-1],"split_indices":[13,26,4,0,21,0,18,0,24,0,0,0,0],"split_type":[0,0,0,0,0,0,0,0,0,0,0,0,0],"sum_hessian":[1.0490166E1,6.232691E0,4.2574754E0,2.52517E0,3.7075207E0,1.1468935E0,3.1105819E0,1.2366009E0,2.4709196E0,2.078317E0,1.0322648E0,1.1063945E0,1.3645251E0],"tree_param":{"num_deleted":"0","num_feature":"30","num_nodes":"13","size_leaf_vector":"1"}},{"base_weights":[3.2236096E-3,2.197903E-1,-1.2273587E-1,-2.8060034E-1,4.1774994E-1,5.9380073E-2,-1.472553E-1,1.3999523E-1,-8.025321E-2,4.855558E-2,-7.142223E-2],"categories":[],"categories_nodes":[],"categories_segments":[],"categories_sizes":[],"default_left":[0,0,0,0,0,0,0,0,0,0,0],"id":23,"left_children":[1,3,-1,5,7,-1,-1,-1,9,-1,-1],"loss_changes":[1.57995E0,9.831923E-1,0E0,1.0281415E0,9.9305475E-1,0E0,0E0,0E0,3.825741E-1,0E0,0E0],"parents":[2147483647,0,0,1,1,3,3,4,4,8,8],"right_children":[2,4,-1,6,8,-1,-1,-1,10,-1,-1],"split_conditions":[1.204E2,1.203E-2,-1.2273587E-1,2.307E-2,3.169E-1,5.9380073E-2,-1.472553E-1,1.3999523E-1,7.112E2,4.855558E-2,-7.142223E-2],"split_indices":[22,15,0,7,26,0,0,0,23,0,0],"split_type":[0,0,0,0,0,0,0,0,0,0,0],"sum_hessian":[9.816336E0,7.7421403E0,2.074195E0,2.0763085E0,5.6658316E0,1.0694202E0,1.0068884E0,3.3575113E0,2.3083205E0,1.1221355E0,1.186185E0],"tree_param":{"num_deleted":"0","num_feature":"30","num_nodes":"11","size_leaf_vector":"1"}},{"base_weights":[-5.412309E-3,2.532738E-1,-4.875247E-1,5.29529E-1,-2.2800697E-1,-1.1465924E-2,-1.3631085E-1,2.346898E-3,1.3768476E-1,4.9197905E-2,-1.166773E-1],"categories":[],"categories_nodes":[],"categories_segments":[],"categories_sizes":[],"default_left":[0,0,0,0,0,0,0,0,0,0,0],"id":24,"left_children":[1,3,5,7,9,-1,-1,-1,-1,-1,-1],"loss_changes":[1.3919405E0,1.0882987E0,2.8592253E-1,3.9707816E-1,7.0829344E-1,0E0,0E0,0E0,0E0,0E0,0E0],"parents":[2147483647,0,0,1,1,2,2,3,3,4,4],"right_children":[2,4,6,8,10,-1,-1,-1,-1,-1,-1],"split_conditions":[6.988E2,1.38E-1,1.948E1,1.104E-2,6.219E2,-1.1465924E-2,-1.3631085E-1,2.346898E-3,1.3768476E-1,4.9197905E-2,-1.166773E-1],"split_indices":[3,24,1,15,23,0,0,0,0,0,0],"split_type":[0,0,0,0,0,0,0,0,0,0,0],"sum_hessian":[9.170834E0,6.2772956E0,2.8935378E0,3.9244251E0,2.3528702E0,1.3020809E0,1.5914569E0,1.1736554E0,2.7507696E0,1.1400762E0,1.2127942E0],"tree_param":{"num_deleted":"0","num_feature":"30","num_nodes":"11","size_leaf_vector":"1"}},{"base_weights":[-1.18564945E-2,1.0045194E-1,-2.3849621E-1,1.005956E-1,-1.2394064E-1,-4.6704184E-2,7.478591E-2],"categories":[],"categories_nodes":[],"categories_segments":[],"categories_sizes":[],"default_left":[0,0,0,0,0,0,0],"id":25,"left_children":[1,-1,3,5,-1,-1,-1],"loss_changes":[1.2405494E0,0E0,1.0129254E0,5.213204E-1,0E0,0E0,0E0],"parents":[2147483647,0,0,2,2,3,3],"right_children":[2,-1,4,6,-1,-1,-1],"split_conditions":[9.176E1,1.0045194E-1,1.356E-1,5.637E-2,-1.2394064E-1,-4.6704184E-2,7.478591E-2],"split_indices":[22,0,24,9,0,0,0],"split_type":[0,0,0,0,0,0,0],"sum_hessian":[8.618698E0,2.2648747E0,6.3538237E0,3.752239E0,2.6015844E0,1.7539328E0,1.9983063E0],"tree_param":{"num_deleted":"0","num_feature":"30","num_nodes":"7","size_leaf_vector":"1"}},{"base_weights":[-9.35479E-3,1.0823275E-1,-2.1584359E-1,6.466186E-2,-4.3478915E-1,4.2995293E-2,-1.2495404E-1],"categories":[],"categories_nodes":[],"categories_segments":[],"categories_sizes":[],"default_left":[0,0,0,0,0,0,0],"id":26,"left_children":[1,-1,3,-1,5,-1,-1],"loss_changes":[1.1613203E0,0E0,1.0137563E0,0E0,8.3635485E-1,0E0,0E0],"parents":[2147483647,0,0,2,2,4,4],"right_children":[2,-1,4,-1,6,-1,-1],"split_conditions":[1.953E1,1.0823275E-1,1.092E-1,6.466186E-2,2.17E1,4.2995293E-2,-1.2495404E-1],"split_indices":[13,0,24,0,21,0,0],"split_type":[0,0,0,0,0,0,0],"sum_hessian":[8.188522E0,1.7914796E0,6.3970428E0,1.7098576E0,4.687185E0,1.0306451E0,3.65654E0],"tree_param":{"num_deleted":"0","num_feature":"30","num_nodes":"7","size_leaf_vector":"1"}},{"base_weights":[2.360537E-3,2.820014E-1,-3.730243E-1,5.116551E-1,-4.0872827E-2,2.5723342E-2,-1.1425557E-1,1.2787919E-1,1.4872253E-2],"categories":[],"categories_nodes":[],"categories_segments":[],"categories_sizes":[],"default_left":[0,0,0,0,0,0,0,0,0],"id":27,"left_children":[1,3,5,7,-1,-1,-1,-1,-1],"loss_changes":[1.0313752E0,7.329447E-1,4.908983E-1,1.8186271E-1,0E0,0E0,0E0,0E0,0E0],"parents":[2147483647,0,0,1,1,2,2,3,3],"right_children":[2,4,6,8,-1,-1,-1,-1,-1],"split_conditions":[3.444E1,2.989E1,8.928E-2,3.019E-1,-4.0872827E-2,2.5723342E-2,-1.1425557E-1,1.2787919E-1,1.4872253E-2],"split_indices":[13,21,4,28,0,0,0,0,0],"split_type":[0,0,0,0,0,0,0,0,0],"sum_hessian":[7.823051E0,4.625831E0,3.19722E0,3.1068373E0,1.5189936E0,1.0051471E0,2.1920729E0,2.046775E0,1.0600622E0],"tree_param":{"num_deleted":"0","num_feature":"30","num_nodes":"9","size_leaf_vector":"1"}},{"base_weights":[4.362808E-3,2.3306209E-1,-4.134158E-1,4.6312878E-1,-3.43417E-2,-4.551401E-3,-1.20875955E-1,-5.145421E-3,1.2511972E-1],"categories":[],"categories_nodes":[],"categories_segments":[],"categories_sizes":[],"default_left":[0,0,0,0,0,0,0,0,0],"id":28,"left_children":[1,3,5,7,-1,-1,-1,-1,-1],"loss_changes":[9.073263E-1,6.498758E-1,2.371453E-1,3.4773374E-1,0E0,0E0,0E0,0E0,0E0],"parents":[2147483647,0,0,1,1,2,2,3,3],"right_children":[2,4,6,8,-1,-1,-1,-1,-1],"split_conditions":[6.988E2,1.38E-1,1.948E1,1.104E-2,-3.43417E-2,-4.551401E-3,-1.20875955E-1,-5.145421E-3,1.2511972E-1],"split_indices":[3,24,1,15,0,0,0,0,0],"split_type":[0,0,0,0,0,0,0,0,0],"sum_hessian":[7.487823E0,5.1246433E0,2.3631794E0,3.175533E0,1.9491104E0,1.1433582E0,1.2198213E0,1.0020652E0,2.1734679E0],"tree_param":{"num_deleted":"0","num_feature":"30","num_nodes":"9","size_leaf_vector":"1"}},{"base_weights":[-5.161592E-4,4.035614E-1,-2.3290478E-1,1.18965104E-1,-4.3433555E-3,3.9371748E-2,-5.042854E-1,-2.5585739E-2,-1.1831851E-1],"categories":[],"categories_nodes":[],"categories_segments":[],"categories_sizes":[],"default_left":[0,0,0,0,0,0,0,0,0],"id":29,"left_children":[1,3,5,-1,-1,-1,7,-1,-1],"loss_changes":[8.6061835E-1,2.8514892E-1,7.77732E-1,0E0,0E0,0E0,5.070609E-2,0E0,0E0],"parents":[2147483647,0,0,1,1,2,2,6,6],"right_children":[2,4,6,-1,-1,-1,8,-1,-1],"split_conditions":[2.331E1,8.097E2,9.037E-2,1.18965104E-1,-4.3433555E-3,3.9371748E-2,2.324E1,-2.5585739E-2,-1.1831851E-1],"split_indices":[21,23,4,0,0,0,13,0,0],"split_type":[0,0,0,0,0,0,0,0,0],"sum_hessian":[7.164028E0,2.346811E0,4.8172174E0,1.3437848E0,1.0030261E0,1.9708091E0,2.8464081E0,1.0001807E0,1.8462274E0],"tree_param":{"num_deleted":"0","num_feature":"30","num_nodes":"9","size_leaf_vector":"1"}},{"base_weights":[1.0843972E-3,3.627333E-1,-2.4799734E-1,1.234841E-1,-2.5291596E-2,2.0492515E-2,-4.6976492E-1,-2.5650725E-2,-1.1585168E-1],"categories":[],"categories_nodes":[],"categories_segments":[],"categories_sizes":[],"default_left":[0,0,0,0,0,0,0,0,0],"id":30,"left_children":[1,3,5,-1,-1,-1,7,-1,-1],"loss_changes":[8.004248E-1,5.2943814E-1,4.572797E-1,0E0,0E0,0E0,5.296409E-2,0E0,0E0],"parents":[2147483647,0,0,1,1,2,2,6,6],"right_children":[2,4,6,-1,-1,-1,8,-1,-1],"split_conditions":[2.08E-1,4.051E1,7.689E2,1.234841E-1,-2.5291596E-2,2.0492515E-2,1.739E1,-2.5650725E-2,-1.1585168E-1],"split_indices":[26,13,23,0,0,0,20,0,0],"split_type":[0,0,0,0,0,0,0,0,0],"sum_hessian":[6.887065E0,2.6227446E0,4.2643204E0,1.5523969E0,1.0703477E0,1.8611356E0,2.4031847E0,1.1105872E0,1.2925975E0],"tree_param":{"num_deleted":"0","num_feature":"30","num_nodes":"9","size_leaf_vector":"1"}},{"base_weights":[-1.6884112E-3,9.514966E-2,-1.6905484E-1,2.223359E-1,-4.1858804E-1,9.487682E-2,-3.0916423E-2,-2.9143558E-3,-1.1290671E-1],"categories":[],"categories_nodes":[],"categories_segments":[],"categories_sizes":[],"default_left":[0,0,0,0,0,0,0,0,0],"id":31,"left_children":[1,-1,3,5,7,-1,-1,-1,-1],"loss_changes":[6.8460345E-1,0E0,7.118989E-1,3.697383E-1,2.4038196E-1,0E0,0E0,0E0,0E0],"parents":[2147483647,0,0,2,2,3,3,4,4],"right_children":[2,-1,4,6,8,-1,-1,-1,-1],"split_conditions":[5.53E2,9.514966E-2,8.983E-2,2.552E-1,2.15E0,9.487682E-2,-3.0916423E-2,-2.9143558E-3,-1.1290671E-1],"split_indices":[23,0,4,28,12,0,0,0,0],"split_type":[0,0,0,0,0,0,0,0,0],"sum_hessian":[6.5610003E0,1.2247294E0,5.3362713E0,2.120024E0,3.216247E0,1.1154958E0,1.0045283E0,1.1453776E0,2.0708694E0],"tree_param":{"num_deleted":"0","num_feature":"30","num_nodes":"9","size_leaf_vector":"1"}},{"base_weights":[4.593074E-3,3.318573E-1,-2.1696596E-1,-1.367106E-2,1.0751915E-1,9.129691E-3,-1.0644034E-1,5.724568E-2,-5.1514056E-2],"categories":[],"categories_nodes":[],"categories_segments":[],"categories_sizes":[],"default_left":[0,0,0,0,0,0,0,0,0],"id":32,"left_children":[1,3,5,-1,-1,7,-1,-1,-1],"loss_changes":[5.9954137E-1,3.1113973E-1,3.5717094E-1,0E0,0E0,3.5911018E-1,0E0,0E0,0E0],"parents":[2147483647,0,0,1,1,2,2,5,5],"right_children":[2,4,6,-1,-1,8,-1,-1,-1],"split_conditions":[2.08E-1,9.995E-2,1.739E1,-1.367106E-2,1.0751915E-1,1.38E-1,-1.0644034E-1,5.724568E-2,-5.1514056E-2],"split_indices":[26,25,20,0,0,24,0,0,0],"split_type":[0,0,0,0,0,0,0,0,0],"sum_hessian":[6.275571E0,2.3324652E0,3.9431057E0,1.0186647E0,1.3138005E0,2.8616738E0,1.0814317E0,1.3675648E0,1.4941092E0],"tree_param":{"num_deleted":"0","num_feature":"30","num_nodes":"9","size_leaf_vector":"1"}},{"base_weights":[2.995097E-3,7.8150965E-2,-2.170176E-1,2.8479243E-2,-8.826826E-2],"categories":[],"categories_nodes":[],"categories_segments":[],"categories_sizes":[],"default_left":[0,0,0,0,0],"id":33,"left_children":[1,-1,3,-1,-1],"loss_changes":[6.837239E-1,0E0,4.7580224E-1,0E0,0E0],"parents":[2147483647,0,0,2,2],"right_children":[2,-1,4,-1,-1],"split_conditions":[2.331E1,7.8150965E-2,9.037E-2,2.8479243E-2,-8.826826E-2],"split_indices":[21,0,4,0,0],"split_type":[0,0,0,0,0],"sum_hessian":[6.020382E0,1.8984381E0,4.121944E0,1.724366E0,2.3975778E0],"tree_param":{"num_deleted":"0","num_feature":"30","num_nodes":"5","size_leaf_vector":"1"}},{"base_weights":[5.2094823E-3,8.5459374E-2,-1.6433865E-1,5.5960353E-2,-3.361464E-1,1.4526442E-2,-4.768567E-1,-1.19514346E-1,-3.7632834E-2],"categories":[],"categories_nodes":[],"categories_segments":[],"categories_sizes":[],"default_left":[0,0,0,0,0,0,0,0,0],"id":34,"left_children":[1,-1,3,-1,5,-1,7,-1,-1],"loss_changes":[5.6275195E-1,0E0,5.2383536E-1,0E0,2.9436493E-1,0E0,9.231567E-3,0E0,0E0],"parents":[2147483647,0,0,2,2,4,4,6,6],"right_children":[2,-1,4,-1,6,-1,8,-1,-1],"split_conditions":[1.953E1,8.5459374E-2,1.081E-1,5.5960353E-2,2.331E1,1.4526442E-2,6.712E-2,-1.19514346E-1,-3.7632834E-2],"split_indices":[13,0,24,0,21,0,5,0,0],"split_type":[0,0,0,0,0,0,0,0,0],"sum_hessian":[5.882366E0,1.2500862E0,4.63228E0,1.1167623E0,3.5155175E0,1.024129E0,2.4913883E0,1.0023412E0,1.4890473E0],"tree_param":{"num_deleted":"0","num_feature":"30","num_nodes":"9","size_leaf_vector":"1"}},{"base_weights":[4.2555975E-3,7.752162E-2,-1.6960283E-1,4.6812024E-2,-4.210947E-1,-1.1273145E-2,-1.1069488E-1],"categories":[],"categories_nodes":[],"categories_segments":[],"categories_sizes":[],"default_left":[0,0,0,0,0,0,0],"id":35,"left_children":[1,-1,3,-1,5,-1,-1],"loss_changes":[5.143036E-1,0E0,6.392382E-1,0E0,1.4449114E-1,0E0,0E0],"parents":[2147483647,0,0,2,2,4,4],"right_children":[2,-1,4,-1,6,-1,-1],"split_conditions":[9.176E1,7.752162E-2,2.698E-1,4.6812024E-2,2.642E1,-1.1273145E-2,-1.1069488E-1],"split_indices":[22,0,28,0,21,0,0],"split_type":[0,0,0,0,0,0,0],"sum_hessian":[5.730239E0,1.4043168E0,4.3259225E0,1.6871829E0,2.6387393E0,1.0823809E0,1.5563586E0],"tree_param":{"num_deleted":"0","num_feature":"30","num_nodes":"7","size_leaf_vector":"1"}},{"base_weights":[3.6693052E-3,2.2547986E-1,-2.8928953E-1,8.773266E-2,-3.348353E-2,-8.368595E-3,-8.267715E-2],"categories":[],"categories_nodes":[],"categories_segments":[],"categories_sizes":[],"default_left":[0,0,0,0,0,0,0],"id":36,"left_children":[1,3,5,-1,-1,-1,-1],"loss_changes":[4.90069E-1,4.3215814E-1,8.2659066E-2,0E0,0E0,0E0,0E0],"parents":[2147483647,0,0,1,1,2,2],"right_children":[2,4,6,-1,-1,-1,-1],"split_conditions":[3.444E1,2.989E1,1.119E-1,8.773266E-2,-3.348353E-2,-8.368595E-3,-8.267715E-2],"split_indices":[13,21,27,0,0,0,0],"split_type":[0,0,0,0,0,0,0],"sum_hessian":[5.5378757E0,3.2827294E0,2.2551463E0,2.0525482E0,1.230181E0,1.1998461E0,1.0553E0],"tree_param":{"num_deleted":"0","num_feature":"30","num_nodes":"7","size_leaf_vector":"1"}},{"base_weights":[-2.4447741E-3,1.6381863E-1,-7.033644E-2,-6.4879015E-2,4.480748E-1,1.1079786E-1,2.875106E-2],"categories":[],"categories_nodes":[],"categories_segments":[],"categories_sizes":[],"default_left":[0,0,0,0,0,0,0],"id":37,"left_children":[1,3,-1,-1,5,-1,-1],"loss_changes":[4.278057E-1,8.394378E-1,0E0,0E0,3.5780728E-2,0E0,0E0],"parents":[2147483647,0,0,1,1,4,4],"right_children":[2,4,-1,-1,6,-1,-1],"split_conditions":[1.456E-1,6.095E-2,-7.033644E-2,-6.4879015E-2,1.073E2,1.1079786E-1,2.875106E-2],"split_indices":[27,5,0,0,22,0,0],"split_type":[0,0,0,0,0,0,0],"sum_hessian":[5.37546E0,4.001411E0,1.3740492E0,1.4204915E0,2.5809195E0,1.3059725E0,1.2749469E0],"tree_param":{"num_deleted":"0","num_feature":"30","num_nodes":"7","size_leaf_vector":"1"}},{"base_weights":[-4.7926264E-4,6.397118E-2,-1.8098329E-1,2.8225303E-2,-7.781899E-2],"categories":[],"categories_nodes":[],"categories_segments":[],"categories_sizes":[],"default_left":[0,0,0,0,0],"id":38,"left_children":[1,-1,3,-1,-1],"loss_changes":[4.1610146E-1,0E0,3.6334002E-1,0E0,0E0],"parents":[2147483647,0,0,2,2],"right_children":[2,-1,4,-1,-1],"split_conditions":[2.331E1,6.397118E-2,9.037E-2,2.8225303E-2,-7.781899E-2],"split_indices":[21,0,4,0,0],"split_type":[0,0,0,0,0],"sum_hessian":[5.1951203E0,1.5941013E0,3.6010191E0,1.5397323E0,2.0612867E0],"tree_param":{"num_deleted":"0","num_feature":"30","num_nodes":"5","size_leaf_vector":"1"}},{"base_weights":[1.9602247E-3,1.8611875E-1,-6.4481504E-2,-3.680196E-2,3.5034883E-1,1.1404746E-1,-6.528571E-3],"categories":[],"categories_nodes":[],"categories_segments":[],"categories_sizes":[],"default_left":[0,0,0,0,0,0,0],"id":39,"left_children":[1,3,-1,-1,5,-1,-1],"loss_changes":[4.2434675E-1,3.394935E-1,0E0,0E0,3.1153893E-1,0E0,0E0],"parents":[2147483647,0,0,1,1,4,4],"right_children":[2,4,-1,-1,6,-1,-1],"split_conditions":[6.988E2,1.203E-2,-6.4481504E-2,-3.680196E-2,3.169E-1,1.1404746E-1,-6.528571E-3],"split_indices":[3,15,0,0,26,0,0],"split_type":[0,0,0,0,0,0,0],"sum_hessian":[5.099274E0,3.5244768E0,1.5747973E0,1.0461988E0,2.478278E0,1.2637906E0,1.2144872E0],"tree_param":{"num_deleted":"0","num_feature":"30","num_nodes":"7","size_leaf_vector":"1"}},{"base_weights":[3.6661162E-3,7.211491E-2,-1.4650524E-1,4.4304743E-2,-3.1083432E-1,-4.3487498E-3,-8.148932E-2],"categories":[],"categories_nodes":[],"categories_segments":[],"categories_sizes":[],"default_left":[0,0,0,0,0,0,0],"id":40,"left_children":[1,-1,3,-1,5,-1,-1],"loss_changes":[3.7061834E-1,0E0,3.642543E-1,0E0,9.7071886E-2,0E0,0E0],"parents":[2147483647,0,0,2,2,4,4],"right_children":[2,-1,4,-1,6,-1,-1],"split_conditions":[1.975E1,7.211491E-2,1.092E-1,4.4304743E-2,1.814E1,-4.3487498E-3,-8.148932E-2],"split_indices":[13,0,24,0,1,0,0],"split_type":[0,0,0,0,0,0,0],"sum_hessian":[4.9292464E0,1.044862E0,3.8843844E0,1.0916011E0,2.7927833E0,1.0064045E0,1.7863787E0],"tree_param":{"num_deleted":"0","num_feature":"30","num_nodes":"7","size_leaf_vector":"1"}},{"base_weights":[8.280401E-3,6.8282686E-2,-1.477429E-1,4.425944E-2,-3.622782E-1,-1.586998E-2,-9.521259E-2],"categories":[],"categories_nodes":[],"categories_segments":[],"categories_sizes":[],"default_left":[0,0,0,0,0,0,0],"id":41,"left_children":[1,-1,3,-1,5,-1,-1],"loss_changes":[3.5313764E-1,0E0,4.4943947E-1,0E0,6.938487E-2,0E0,0E0],"parents":[2147483647,0,0,2,2,4,4],"right_children":[2,-1,4,-1,6,-1,-1],"split_conditions":[9.176E1,6.8282686E-2,2.683E-1,4.425944E-2,1.351E-1,-1.586998E-2,-9.521259E-2],"split_indices":[22,0,28,0,24,0,0],"split_type":[0,0,0,0,0,0,0],"sum_hessian":[4.823711E0,1.1595906E0,3.6641204E0,1.3354253E0,2.328695E0,1.1547506E0,1.1739445E0],"tree_param":{"num_deleted":"0","num_feature":"30","num_nodes":"7","size_leaf_vector":"1"}},{"base_weights":[6.8881637E-3,2.0134437E-1,-4.7216114E-2,7.9864606E-2,-1.3716198E-2],"categories":[],"categories_nodes":[],"categories_segments":[],"categories_sizes":[],"default_left":[0,0,0,0,0],"id":42,"left_children":[1,3,-1,-1,-1],"loss_changes":[3.1599817E-1,2.2489206E-1,0E0,0E0,0E0],"parents":[2147483647,0,0,1,1],"right_children":[2,4,-1,-1,-1],"split_conditions":[2.02E1,1.32E-2,-4.7216114E-2,7.9864606E-2,-1.3716198E-2],"split_indices":[1,17,0,0,0],"split_type":[0,0,0,0,0],"sum_hessian":[4.6821795E0,2.6958854E0,1.9862938E0,1.27866E0,1.4172255E0],"tree_param":{"num_deleted":"0","num_feature":"30","num_nodes":"5","size_leaf_vector":"1"}}]},"name":"gbtree"},"learner_model_param":{"base_score":"[6.2637365E-1]","boost_from_average":"1","num_class":"0","num_feature":"30","num_target":"1"},"objective":{"name":"binary:logistic","reg_loss_param":{"scale_pos_weight":"1"}}},"version":[3,2,0]}